[[-0.02215267 -0.05118678  0.01917299 ...  0.02975662  0.02689432
  -0.05229124]
 [-0.0056006   0.03066831  0.05540051 ...  0.02620376 -0.00706929
  -0.00325225]
 [-0.03303517 -0.05581648  0.03002326 ... -0.03305984 -0.01049714
   0.05579044]
 ...
 [ 0.02474825 -0.01092851  0.0002465  ... -0.04837854  0.05213819
  -0.032017  ]
 [-0.00855454 -0.01207671  0.05499687 ...  0.0451632   0.0251243
   0.05307804]
 [-0.01503869  0.04184159 -0.01732615 ... -0.00944743  0.00868547
   0.05058042]]
[[ 0.01831102  0.03246004  0.00436716 ...  0.02621565  0.0112534
   0.03512386]
 [ 0.03153342 -0.00914478 -0.04311842 ... -0.00749937  0.00517386
  -0.01604237]
 [-0.02011322  0.00608757 -0.00238729 ...  0.02922407  0.01539149
   0.00933527]
 ...
 [-0.02981498 -0.02443576 -0.06339621 ...  0.01935364 -0.02298126
  -0.00486036]
 [-0.03267075 -0.0436073  -0.01268169 ... -0.02325037  0.01821389
  -0.01041845]
 [-0.01320994  0.02150023 -0.02771673 ... -0.00194726 -0.02150657
  -0.03475304]]
[0. 0. 0. ... 0. 0. 0.]
[[-0.00776461 -0.03213162  0.00581037 ...  0.00759162 -0.00091439
   0.00227486]
 [-0.05153154  0.05228464 -0.03711561 ... -0.03125087 -0.01101842
  -0.05131733]
 [ 0.01873927  0.01146427 -0.05937809 ... -0.05030578 -0.05498154
   0.03677787]
 ...
 [-0.02490831  0.03784474  0.02977878 ... -0.04216475  0.04531099
  -0.00993306]
 [-0.01353819 -0.01570698  0.00270461 ... -0.01232307 -0.02641306
   0.02532851]
 [-0.01346646 -0.04569659 -0.00240704 ... -0.00816251 -0.02048597
   0.00910287]]
[[-0.02874458 -0.0128109   0.01663259 ...  0.01830815 -0.0340135
   0.01278532]
 [-0.07680196 -0.00929093 -0.05973626 ... -0.02469387  0.01217919
  -0.00199911]
 [-0.0223967   0.00981413 -0.0023855  ... -0.01986519  0.01162222
  -0.03382207]
 ...
 [-0.0107473   0.043284    0.0164996  ...  0.00341026  0.0123434
   0.02791373]
 [-0.00321101 -0.01104652  0.01974756 ... -0.02835924  0.0002085
   0.00603416]
 [ 0.00709735  0.00458831 -0.01113022 ...  0.00705587 -0.0578758
  -0.01076868]]
[0. 0. 0. ... 0. 0. 0.]
[[ 0.01750556 -0.02230106  0.00290706 ... -0.03872529 -0.041444
   0.03091493]
 [-0.01255923  0.04424325  0.0140987  ... -0.03330168  0.03784816
   0.02019661]
 [ 0.03776319 -0.03215681  0.01438457 ...  0.00994904 -0.02678647
   0.04306249]
 ...
 [ 0.02600941  0.03228925 -0.00248117 ...  0.04609399  0.03691766
  -0.0022877 ]
 [-0.0189422  -0.03818048  0.04646137 ... -0.03831431 -0.02613935
   0.04102735]
 [-0.01050423  0.01150936 -0.04214285 ...  0.03397623 -0.04071945
  -0.02637026]]
[[-0.02755511 -0.00783006 -0.00424585 ... -0.00380645  0.02940049
   0.00362682]
 [ 0.0039547  -0.00833929  0.01822305 ...  0.04660989  0.05251724
  -0.03599516]
 [-0.00059308  0.00785488  0.02102113 ... -0.0022234   0.00647423
  -0.03340499]
 ...
 [-0.02071559 -0.03717536 -0.03930374 ... -0.05233449  0.03942993
   0.00153364]
 [-0.01885433  0.02242498 -0.01499    ... -0.01421453 -0.03896436
  -0.01150731]
 [ 0.02685539 -0.04029552  0.03292883 ...  0.02266712 -0.00245491
  -0.0399596 ]]
[0. 0. 0. ... 0. 0. 0.]
[[-0.02356613 -0.04943259 -0.00573323 ... -0.03235393  0.01047201
  -0.00628832]
 [ 0.0324261   0.01880002 -0.02946843 ... -0.04843812 -0.00078039
  -0.04981116]
 [-0.0272269   0.00959827  0.04962573 ... -0.04220532  0.0310565
   0.01413176]
 ...
 [ 0.02186859 -0.05128207  0.00684321 ... -0.05066963 -0.03092279
  -0.04396722]
 [ 0.04820982 -0.03438536 -0.0125344  ...  0.0234976   0.00634586
   0.00893011]
 [-0.03013887  0.03801889 -0.00934463 ...  0.03994069 -0.01930665
   0.02183454]]
[[-3.9384127e-02  2.4543999e-02 -5.7438731e-02 ...  6.3367382e-02
  -6.8999464e-03 -4.9900964e-02]
 [-3.8236871e-02 -6.8632364e-03  1.4904904e-02 ... -2.2617970e-02
  -1.3658118e-03  3.3732997e-03]
 [-2.4081279e-02  3.8285684e-02  2.4481654e-02 ... -2.6416942e-02
   1.8826779e-03  7.1045673e-03]
 ...
 [ 1.6657975e-02 -1.1398985e-02 -5.8961015e-02 ... -4.1127903e-05
   4.4137582e-02  3.3508033e-02]
 [ 2.7204105e-03 -2.3380551e-02 -2.7916031e-03 ... -3.7438236e-02
   2.8466869e-02 -1.9298675e-02]
 [-3.1067429e-03  2.2693394e-02 -4.0179502e-02 ... -2.7107937e-02
  -7.4956645e-03  2.6859010e-02]]
[0. 0. 0. ... 0. 0. 0.]
[[ 0.03683959 -0.00281724 -0.06493092 ... -0.06636786  0.06695344
  -0.08812761]
 [-0.00015675  0.04025935 -0.08318311 ... -0.02152729 -0.0663588
  -0.07314207]
 [-0.05983788  0.01952366  0.02372196 ...  0.04474147 -0.05302277
  -0.0005224 ]
 ...
 [ 0.02068274 -0.03523784  0.03057836 ...  0.07083595 -0.03593571
  -0.06547356]
 [-0.03047239 -0.07344891 -0.00110716 ...  0.00233686 -0.07774459
  -0.00726983]
 [ 0.03664166 -0.04035116 -0.07015    ...  0.00088963 -0.05262351
   0.0878063 ]]
[0. 0. 0. 0. 0. 0. 0. 0. 0. 0. 0. 0. 0. 0. 0. 0. 0. 0. 0. 0. 0. 0. 0. 0.
 0. 0. 0. 0. 0.]
